{"learner":{"attributes":{},"feature_names":["totaldue","termdays","loannumber_max","totaldue_min","termdays_min","first_payment_default_sum","longitude_gps","latitude_gps","age","is_GT Bank","is_First Bank","is_Access_Diamond","is_UBA","is_Zenith Bank","is_Permanent","is_Self-Employed","bank_account_num"],"feature_types":["float","int","float","float","float","float","float","float","float","float","float","float","float","float","float","float","int"],"gradient_booster":{"model":{"gbtree_model_param":{"num_parallel_tree":"1","num_trees":"14"},"iteration_indptr":[0,1,2,3,4,5,6,7,8,9,10,11,12,13,14],"tree_info":[0,0,0,0,0,0,0,0,0,0,0,0,0,0],"trees":[{"base_weights":[1.3452801E-1,4.9172065E-1,-4.125794E-1,2.6212206E-1,6.68453E-1,-1.3426849E0,2.1769443E-1,1.5001191E-1,-2.147197E-2,2.1216743E-1,-4.7456052E-2,-5.726133E-1,-3.3930042E-1,1.5212376E-1,-1.2718984E-1],"categories":[],"categories_nodes":[],"categories_segments":[],"categories_sizes":[],"default_left":[0,0,0,0,0,0,0,0,0,0,0,0,0,0,0],"id":0,"left_children":[1,3,5,7,9,11,13,-1,-1,-1,-1,-1,-1,-1,-1],"loss_changes":[9.56752E1,1.1836845E1,1.1373483E2,1.0388616E1,5.452301E0,7.223587E0,2.1793678E1,0E0,0E0,0E0,0E0,0E0,0E0,0E0,0E0],"parents":[2147483647,0,0,1,1,2,2,3,3,4,4,5,5,6,6],"right_children":[2,4,6,8,10,12,14,-1,-1,-1,-1,-1,-1,-1,-1],"split_conditions":[1E0,2E0,4E0,6.685084E0,7.914859E0,1E0,3E0,1.5001191E-1,-2.147197E-2,2.1216743E-1,-4.7456052E-2,-5.726133E-1,-3.3930042E-1,1.5212376E-1,-1.2718984E-1],"split_indices":[5,2,2,7,6,14,5,0,0,0,0,0,0,0,0],"split_type":[0,0,0,0,0,0,0,0,0,0,0,0,0,0,0],"sum_hessian":[4.875426E2,2.950277E2,1.9251491E2,1.2940138E2,1.6562631E2,7.7304726E1,1.1521018E2,7.525073E1,5.4150654E1,1.5834398E2,7.282329E0,1.8859365E1,5.8445362E1,7.954544E1,3.566474E1],"tree_param":{"num_deleted":"0","num_feature":"17","num_nodes":"15","size_leaf_vector":"1"}},{"base_weights":[1.0774676E-1,3.8138843E-1,-2.608782E-1,6.64397E-2,4.7232586E-1,-6.931913E-1,2.5566003E-1,-4.5958243E-2,1.2259315E-1,2.0742391E-1,9.475872E-2,2.3617037E-1,-2.3067237E-1,1.894172E-1,-3.5463315E-2],"categories":[],"categories_nodes":[],"categories_segments":[],"categories_sizes":[],"default_left":[0,0,0,0,0,0,0,0,0,0,0,0,0,0,0],"id":1,"left_children":[1,3,5,7,9,11,13,-1,-1,-1,-1,-1,-1,-1,-1],"loss_changes":[4.81574E1,7.811844E0,4.5637722E1,4.761487E0,7.0601196E0,1.3058201E1,1.320689E1,0E0,0E0,0E0,0E0,0E0,0E0,0E0,0E0],"parents":[2147483647,0,0,1,1,2,2,3,3,4,4,5,5,6,6],"right_children":[2,4,6,8,10,12,14,-1,-1,-1,-1,-1,-1,-1,-1],"split_conditions":[1E0,3.6E1,1.575E4,3E0,6.59471E0,1.15E4,1E0,-4.5958243E-2,1.2259315E-1,2.0742391E-1,9.475872E-2,2.3617037E-1,-2.3067237E-1,1.894172E-1,-3.5463315E-2],"split_indices":[5,8,0,2,7,3,16,0,0,0,0,0,0,0,0],"split_type":[0,0,0,0,0,0,0,0,0,0,0,0,0,0,0],"sum_hessian":[4.7542865E2,2.7284946E2,2.0257918E2,6.1518757E1,2.113307E2,1.1009442E2,9.2484764E1,3.780624E1,2.3712517E1,8.662106E1,1.2470964E2,4.8995914E0,1.0519483E2,4.5784122E1,4.6700638E1],"tree_param":{"num_deleted":"0","num_feature":"17","num_nodes":"15","size_leaf_vector":"1"}},{"base_weights":[8.51903E-2,2.922567E-1,-1.7112298E-1,1.1095228E-1,4.4540063E-1,3.7868455E-1,-3.950665E-1,-1.852294E-1,5.8535516E-2,5.8225315E-2,1.7127445E-1,4.217163E-2,2.0145445E-1,-1.7982876E-1,-2.6772786E-2],"categories":[],"categories_nodes":[],"categories_segments":[],"categories_sizes":[],"default_left":[0,0,0,0,0,0,0,0,0,0,0,0,0,0,0],"id":2,"left_children":[1,3,5,7,9,11,13,-1,-1,-1,-1,-1,-1,-1,-1],"loss_changes":[2.4628763E1,7.0733223E0,2.5707344E1,7.4033475E0,4.2653637E0,4.130188E0,9.1954975E0,0E0,0E0,0E0,0E0,0E0,0E0,0E0,0E0],"parents":[2147483647,0,0,1,1,2,2,3,3,4,4,5,5,6,6],"right_children":[2,4,6,8,10,12,14,-1,-1,-1,-1,-1,-1,-1,-1],"split_conditions":[1E0,2E0,1E0,3.3E1,3.8E1,9E0,4E0,-1.852294E-1,5.8535516E-2,5.8225315E-2,1.7127445E-1,4.217163E-2,2.0145445E-1,-1.7982876E-1,-2.6772786E-2],"split_indices":[5,2,16,8,8,2,2,0,0,0,0,0,0,0,0],"split_type":[0,0,0,0,0,0,0,0,0,0,0,0,0,0,0],"sum_hessian":[4.6210452E2,2.5553036E2,2.0657416E2,1.1779701E2,1.3773335E2,5.9587902E1,1.4698625E2,1.1545447E1,1.06251564E2,4.6724167E1,9.1009186E1,3.368074E1,2.5907164E1,8.753327E1,5.9452984E1],"tree_param":{"num_deleted":"0","num_feature":"17","num_nodes":"15","size_leaf_vector":"1"}},{"base_weights":[6.5470465E-2,4.1582906E-1,-1.835014E-2,-2.5254007E-2,5.750401E-1,1.6021995E-1,-2.684598E-1,1.4576487E-1,-1.886947E-1,2.3886745E-1,8.129284E-2,1.0879314E-1,5.967034E-3,-5.7044365E-2,-2.3417957E-1],"categories":[],"categories_nodes":[],"categories_segments":[],"categories_sizes":[],"default_left":[0,0,0,0,0,0,0,0,0,0,0,0,0,0,0],"id":3,"left_children":[1,3,5,7,9,11,13,-1,-1,-1,-1,-1,-1,-1,-1],"loss_changes":[1.322138E1,6.1176004E0,1.630185E1,7.7140636E0,4.0817623E0,6.0439396E0,5.948493E0,0E0,0E0,0E0,0E0,0E0,0E0,0E0,0E0],"parents":[2147483647,0,0,1,1,2,2,3,3,4,4,5,5,6,6],"right_children":[2,4,6,8,10,12,14,-1,-1,-1,-1,-1,-1,-1,-1],"split_conditions":[1E0,3.6E1,1E0,6.637837E0,3.8233314E0,6.59471E0,3E0,1.4576487E-1,-1.886947E-1,2.3886745E-1,8.129284E-2,1.0879314E-1,5.967034E-3,-5.7044365E-2,-2.3417957E-1],"split_indices":[16,8,5,7,6,7,5,0,0,0,0,0,0,0,0],"split_type":[0,0,0,0,0,0,0,0,0,0,0,0,0,0,0],"sum_hessian":[4.4894818E2,8.590715E1,3.6304105E2,2.3007599E1,6.2899555E1,2.1202298E2,1.5101807E2,1.2564913E1,1.0442686E1,3.5475254E1,2.74243E1,8.615761E1,1.25865364E2,1.3217783E2,1.884023E1],"tree_param":{"num_deleted":"0","num_feature":"17","num_nodes":"15","size_leaf_vector":"1"}},{"base_weights":[5.0104998E-2,-6.013319E-2,2.684074E-1,1.05253585E-1,-2.619408E-1,3.3919948E-1,-5.565981E-1,1.3678402E-1,-1.3044397E-2,1.592803E-1,-9.288926E-2,3.5791777E-2,1.3280097E-1,-1.5460576E-2,-2.4930277E-1],"categories":[],"categories_nodes":[],"categories_segments":[],"categories_sizes":[],"default_left":[0,0,0,0,0,0,0,0,0,0,0,0,0,0,0],"id":4,"left_children":[1,3,5,7,9,11,13,-1,-1,-1,-1,-1,-1,-1,-1],"loss_changes":[1.0628232E1,9.834373E0,8.841101E0,8.48011E0,5.1793356E0,3.0656385E0,1.6322565E0,0E0,0E0,0E0,0E0,0E0,0E0,0E0,0E0],"parents":[2147483647,0,0,1,1,2,2,3,3,4,4,5,5,6,6],"right_children":[2,4,6,8,10,12,14,-1,-1,-1,-1,-1,-1,-1,-1],"split_conditions":[2.3E4,1E0,7.4999485E0,1.25E4,1.15E4,6.5377398E0,5E0,1.3678402E-1,-1.3044397E-2,1.592803E-1,-9.288926E-2,3.5791777E-2,1.3280097E-1,-1.5460576E-2,-2.4930277E-1],"split_indices":[0,5,6,0,3,7,2,0,0,0,0,0,0,0,0],"split_type":[0,0,0,0,0,0,0,0,0,0,0,0,0,0,0],"sum_hessian":[4.3997137E2,2.9282526E2,1.4714613E2,1.6119777E2,1.3162747E2,1.3605995E2,1.1086181E1,4.7391266E1,1.1380651E2,6.89307E0,1.24734406E2,4.4225555E1,9.18344E1,4.3210135E0,6.765167E0],"tree_param":{"num_deleted":"0","num_feature":"17","num_nodes":"15","size_leaf_vector":"1"}},{"base_weights":[3.8393587E-2,-2.2279102E-1,1.0773311E-1,-3.4065023E-1,3.1265825E-1,2.2280988E-1,-9.338227E-2,-1.8335676E-1,-5.4258175E-2,1.28586115E-2,1.8457538E-1,1.759555E-1,4.188251E-2,-1.5392576E-1,2.7816975E-2],"categories":[],"categories_nodes":[],"categories_segments":[],"categories_sizes":[],"default_left":[0,0,0,0,0,0,0,0,0,0,0,0,0,0,0],"id":5,"left_children":[1,3,5,7,9,11,13,-1,-1,-1,-1,-1,-1,-1,-1],"loss_changes":[7.856778E0,5.853017E0,7.9461927E0,3.1364202E0,1.3573005E0,6.518278E0,9.837392E0,0E0,0E0,0E0,0E0,0E0,0E0,0E0,0E0],"parents":[2147483647,0,0,1,1,2,2,3,3,4,4,5,5,6,6],"right_children":[2,4,6,8,10,12,14,-1,-1,-1,-1,-1,-1,-1,-1],"split_conditions":[3.5E1,1E0,7.177822E0,1E0,3.3E1,1E0,7.500689E0,-1.8335676E-1,-5.4258175E-2,1.28586115E-2,1.8457538E-1,1.759555E-1,4.188251E-2,-1.5392576E-1,2.7816975E-2],"split_indices":[8,11,7,14,8,16,7,0,0,0,0,0,0,0,0],"split_type":[0,0,0,0,0,0,0,0,0,0,0,0,0,0,0],"sum_hessian":[4.3150122E2,9.005888E1,3.4144232E2,7.4110115E1,1.5948773E1,2.1710724E2,1.24335075E2,2.6469603E1,4.7640507E1,9.034834E0,6.9139385E0,3.9292774E1,1.7781447E2,3.7656193E1,8.667889E1],"tree_param":{"num_deleted":"0","num_feature":"17","num_nodes":"15","size_leaf_vector":"1"}},{"base_weights":[2.9428532E-2,3.224989E-1,1.6191855E-2,-6.527419E-2,1.8403105E-1,-7.2038122E-3,-1.8514876E-1,7.279573E-2,-1.2223277E-1],"categories":[],"categories_nodes":[],"categories_segments":[],"categories_sizes":[],"default_left":[0,0,0,0,0,0,0,0,0],"id":6,"left_children":[1,-1,3,5,7,-1,-1,-1,-1],"loss_changes":[5.911727E0,0E0,5.810404E0,6.5032187E0,4.9127297E0,0E0,0E0,0E0,0E0],"parents":[2147483647,0,0,2,2,3,3,4,4],"right_children":[2,-1,4,6,8,-1,-1,-1,-1],"split_conditions":[1.15E4,3.224989E-1,2.3E4,3E0,7.4999485E0,-7.2038122E-3,-1.8514876E-1,7.279573E-2,-1.2223277E-1],"split_indices":[0,0,0,5,6,0,0,0,0],"split_type":[0,0,0,0,0,0,0,0,0],"sum_hessian":[4.2741043E2,4.3404946E0,4.2306995E2,2.8523383E2,1.3783612E2,2.663629E2,1.8870895E1,1.2594353E2,1.18926E1],"tree_param":{"num_deleted":"0","num_feature":"17","num_nodes":"9","size_leaf_vector":"1"}},{"base_weights":[2.2087172E-2,2.4964657E-1,-2.5957221E-2,3.571496E-1,-3.3511537E-1,-2.5487304E-1,5.1303543E-2,2.721065E-1,8.1433825E-2,4.7593366E-2,-2.2006567E-1,-1.5374404E-1,3.995619E-2,3.8939033E-2,-1.1181729E-1],"categories":[],"categories_nodes":[],"categories_segments":[],"categories_sizes":[],"default_left":[0,0,0,0,0,0,0,0,0,0,0,0,0,0,0],"id":7,"left_children":[1,3,5,7,9,11,13,-1,-1,-1,-1,-1,-1,-1,-1],"loss_changes":[4.646461E0,4.7764974E0,6.226691E0,2.7254763E0,2.4810164E0,8.947451E0,8.818671E0,0E0,0E0,0E0,0E0,0E0,0E0,0E0,0E0],"parents":[2147483647,0,0,1,1,2,2,3,3,4,4,5,5,6,6],"right_children":[2,4,6,8,10,12,14,-1,-1,-1,-1,-1,-1,-1,-1],"split_conditions":[1E0,6E1,1E0,1.145E4,6.6239767E0,4.1E1,2E0,2.721065E-1,8.1433825E-2,4.7593366E-2,-2.2006567E-1,-1.5374404E-1,3.995619E-2,3.8939033E-2,-1.1181729E-1],"split_indices":[16,1,14,3,7,8,5,0,0,0,0,0,0,0,0],"split_type":[0,0,0,0,0,0,0,0,0,0,0,0,0,0,0],"sum_hessian":[4.2340326E2,7.307791E1,3.5032535E2,6.205831E1,1.1019604E1,8.782118E1,2.6250415E2,7.075945E0,5.4982365E1,5.189896E0,5.829708E0,5.2589767E1,3.523142E1,2.220868E2,4.0417347E1],"tree_param":{"num_deleted":"0","num_feature":"17","num_nodes":"15","size_leaf_vector":"1"}},{"base_weights":[1.7452002E-2,1.1336104E-1,-1.04872525E-1,1.6622418E-1,-2.8024927E-1,4.676731E-1,-1.6437158E-1,-1.6913677E-2,7.781538E-2,-1.9657567E-2,-2.627624E-1,2.0026617E-1,-4.010905E-2,-3.9936032E-2,-3.0127135E-1],"categories":[],"categories_nodes":[],"categories_segments":[],"categories_sizes":[],"default_left":[0,0,0,0,0,0,0,0,0,0,0,0,0,0,0],"id":8,"left_children":[1,3,5,7,9,11,13,-1,-1,-1,-1,-1,-1,-1,-1],"loss_changes":[4.944678E0,4.9603634E0,6.389305E0,4.345114E0,3.5663056E0,2.2172847E0,4.2914844E0,0E0,0E0,0E0,0E0,0E0,0E0,0E0,0E0],"parents":[2147483647,0,0,1,1,2,2,3,3,4,4,5,5,6,6],"right_children":[2,4,6,8,10,12,14,-1,-1,-1,-1,-1,-1,-1,-1],"split_conditions":[1.3E4,3E0,1.3E4,1E0,7.3684473E0,7.4267454E0,1.0524441E1,-1.6913677E-2,7.781538E-2,-1.9657567E-2,-2.627624E-1,2.0026617E-1,-4.010905E-2,-3.9936032E-2,-3.0127135E-1],"split_indices":[3,5,0,14,7,7,7,0,0,0,0,0,0,0,0],"split_type":[0,0,0,0,0,0,0,0,0,0,0,0,0,0,0],"sum_hessian":[4.19455E2,2.3515446E2,1.8430054E2,2.078211E2,2.7333357E1,1.6703777E1,1.6759676E2,6.14304E1,1.463907E2,2.0906527E1,6.426831E0,1.2454236E1,4.249541E0,1.6270114E2,4.895618E0],"tree_param":{"num_deleted":"0","num_feature":"17","num_nodes":"15","size_leaf_vector":"1"}},{"base_weights":[1.26435375E-2,-6.7590244E-2,1.449312E-1,2.8799495E-1,-1.7648576E-1,-3.2528895E-1,2.4551192E-1,4.4266256E-3,1.4965372E-1,-1.982224E-2,-1.0641516E-1,-1.7402895E-1,7.104804E-2,8.870158E-2,-1.6904974E-1],"categories":[],"categories_nodes":[],"categories_segments":[],"categories_sizes":[],"default_left":[0,0,0,0,0,0,0,0,0,0,0,0,0,0,0],"id":9,"left_children":[1,3,5,7,9,11,13,-1,-1,-1,-1,-1,-1,-1,-1],"loss_changes":[4.4466524E0,1.0152789E1,7.5588627E0,3.5383449E0,3.9190774E0,4.190117E0,5.4760923E0,0E0,0E0,0E0,0E0,0E0,0E0,0E0,0E0],"parents":[2147483647,0,0,1,1,2,2,3,3,4,4,5,5,6,6],"right_children":[2,4,6,8,10,12,14,-1,-1,-1,-1,-1,-1,-1,-1],"split_conditions":[4E0,6.475366E0,6.437825E0,3.8E1,1E0,1E0,5E0,4.4266256E-3,1.4965372E-1,-1.982224E-2,-1.0641516E-1,-1.7402895E-1,7.104804E-2,8.870158E-2,-1.6904974E-1],"split_indices":[2,7,7,8,5,9,5,0,0,0,0,0,0,0,0],"split_type":[0,0,0,0,0,0,0,0,0,0,0,0,0,0,0],"sum_hessian":[4.170216E2,2.5988675E2,1.5713484E2,6.0543747E1,1.9934302E2,2.729503E1,1.2983981E2,2.6836523E1,3.3707222E1,1.239368E2,7.540622E1,1.8759394E1,8.535635E0,1.22857E2,6.98281E0],"tree_param":{"num_deleted":"0","num_feature":"17","num_nodes":"15","size_leaf_vector":"1"}},{"base_weights":[1.0326775E-2,2.4108769E-1,-1.718231E-2,-1.2375755E-1,3.697493E-1,-5.2763027E-1,2.899974E-3,2.7490774E-1,6.279863E-2,-2.7579287E-1,7.9144835E-2,-3.4536198E-3,2.0120071E-1],"categories":[],"categories_nodes":[],"categories_segments":[],"categories_sizes":[],"default_left":[0,0,0,0,0,0,0,0,0,0,0,0,0],"id":10,"left_children":[1,3,5,-1,7,9,11,-1,-1,-1,-1,-1,-1],"loss_changes":[2.6273396E0,3.8595104E0,3.7959208E0,0E0,3.0840268E0,4.587649E0,3.4447374E0,0E0,0E0,0E0,0E0,0E0,0E0],"parents":[2147483647,0,0,1,1,2,2,4,4,5,5,6,6],"right_children":[2,4,6,-1,8,10,12,-1,-1,-1,-1,-1,-1],"split_conditions":[3.296748E0,3.1163452E0,3.318275E0,-1.2375755E-1,3.224759E0,4E0,5.5E1,2.7490774E-1,6.279863E-2,-2.7579287E-1,7.9144835E-2,-3.4536198E-3,2.0120071E-1],"split_indices":[6,6,6,0,6,2,8,0,0,0,0,0,0],"split_type":[0,0,0,0,0,0,0,0,0,0,0,0,0],"sum_hessian":[4.122307E2,4.308092E1,3.6914978E2,6.7227006E0,3.6358223E1,1.30168295E1,3.5613297E2,7.1802673E0,2.9177954E1,8.599476E0,4.4173536E0,3.4957114E2,6.561814E0],"tree_param":{"num_deleted":"0","num_feature":"17","num_nodes":"13","size_leaf_vector":"1"}},{"base_weights":[8.814614E-3,-1.7661983E-3,1.6864733E-1,7.6220505E-2,-8.817941E-2,1.10688E-2,1.7204161E-1,-1.7615111E-1,-1.3504529E-2],"categories":[],"categories_nodes":[],"categories_segments":[],"categories_sizes":[],"default_left":[0,0,0,0,0,0,0,0,0],"id":11,"left_children":[1,3,-1,5,7,-1,-1,-1,-1],"loss_changes":[2.4151225E0,2.7400405E0,0E0,4.1580963E0,4.127616E0,0E0,0E0,0E0,0E0],"parents":[2147483647,0,0,1,1,3,3,4,4],"right_children":[2,4,-1,6,8,-1,-1,-1,-1],"split_conditions":[1.4E1,1E0,1.6864733E-1,8E0,5.166088E0,1.10688E-2,1.7204161E-1,-1.7615111E-1,-1.3504529E-2],"split_indices":[2,5,0,2,7,0,0,0,0],"split_type":[0,0,0,0,0,0,0,0,0],"sum_hessian":[4.1133194E2,4.0459232E2,6.7396483E0,2.1272707E2,1.9186523E2,1.9813223E2,1.4594834E1,1.4272155E1,1.7759308E2],"tree_param":{"num_deleted":"0","num_feature":"17","num_nodes":"9","size_leaf_vector":"1"}},{"base_weights":[7.2948886E-3,-1.2608957E-1,4.518872E-2,-2.0964095E-1,2.7757907E-1,6.9382496E-2,-3.9630932E-1,-9.9403955E-2,-2.0379331E-2,2.464913E-2,2.0559005E-1,-2.9863256E-3,6.702486E-2,7.464817E-2,-2.0739417E-1],"categories":[],"categories_nodes":[],"categories_segments":[],"categories_sizes":[],"default_left":[0,0,0,0,0,0,0,0,0,0,0,0,0,0,0],"id":12,"left_children":[1,3,5,7,9,11,13,-1,-1,-1,-1,-1,-1,-1,-1],"loss_changes":[2.0768323E0,3.124681E0,3.4439113E0,1.2865088E0,1.220237E0,3.7182307E0,3.3628218E0,0E0,0E0,0E0,0E0,0E0,0E0,0E0,0E0],"parents":[2147483647,0,0,1,1,2,2,3,3,4,4,5,5,6,6],"right_children":[2,4,6,8,10,12,14,-1,-1,-1,-1,-1,-1,-1,-1],"split_conditions":[3.5E1,1E0,4E0,3.8373823E0,7.1353645E0,4E0,3.3677065E0,-9.9403955E-2,-2.0379331E-2,2.464913E-2,2.0559005E-1,-2.9863256E-3,6.702486E-2,7.464817E-2,-2.0739417E-1],"split_indices":[8,11,5,6,7,2,6,0,0,0,0,0,0,0,0],"split_type":[0,0,0,0,0,0,0,0,0,0,0,0,0,0,0],"sum_hessian":[4.0876465E2,8.992069E1,3.1884396E2,7.4898796E1,1.50219E1,3.0307834E2,1.5765626E1,3.9573463E1,3.532533E1,1.0967055E1,4.054844E0,2.0066089E2,1.02417435E2,4.9961743E0,1.0769451E1],"tree_param":{"num_deleted":"0","num_feature":"17","num_nodes":"15","size_leaf_vector":"1"}},{"base_weights":[6.0408623E-3,1.589216E-1,-3.1420503E-2,9.3636476E-2,2.4412118E-1,-2.532717E-1,7.991139E-4,7.1269795E-2,-7.605376E-2,-1.9710945E-1,3.065286E-3,3.309737E-2,-3.0800967E-2],"categories":[],"categories_nodes":[],"categories_segments":[],"categories_sizes":[],"default_left":[0,0,0,0,0,0,0,0,0,0,0,0,0],"id":13,"left_children":[1,3,5,7,-1,9,11,-1,-1,-1,-1,-1,-1],"loss_changes":[2.3393772E0,3.3602593E0,2.3462787E0,3.7690084E0,0E0,4.435089E0,3.2704465E0,0E0,0E0,0E0,0E0,0E0,0E0],"parents":[2147483647,0,0,1,1,2,2,3,3,5,5,6,6],"right_children":[2,4,6,8,-1,10,12,-1,-1,-1,-1,-1,-1],"split_conditions":[1.3E4,3E1,3.3E1,4.2E1,2.4412118E-1,1E0,1.3E4,7.1269795E-2,-7.605376E-2,-1.9710945E-1,3.065286E-3,3.309737E-2,-3.0800967E-2],"split_indices":[0,1,8,8,0,14,3,0,0,0,0,0,0],"split_type":[0,0,0,0,0,0,0,0,0,0,0,0,0],"sum_hessian":[4.0660165E2,7.9385445E1,3.2721622E2,7.3227646E1,6.1578007E0,4.06254E1,2.865908E2,5.198861E1,2.1239035E1,1.5452724E1,2.5172676E1,1.3918864E2,1.4740216E2],"tree_param":{"num_deleted":"0","num_feature":"17","num_nodes":"13","size_leaf_vector":"1"}}]},"name":"gbtree"},"learner_model_param":{"base_score":"7.5154245E-1","boost_from_average":"1","num_class":"0","num_feature":"17","num_target":"1"},"objective":{"name":"binary:logistic","reg_loss_param":{"scale_pos_weight":"1"}}},"version":[2,1,3]}